time,pwm1,pwm2,pwm3,pwm4,depth,press,voltage,roll,pitch,yaw,a_x,a_y,a_z,w_row,w_pitch,w_yaw
182722,1100,1100,1100,1100,-0.01,606,12.16,5.99,-1.30,-160.31,0.25,0.94,8.66,-0.4,0.0,-1.2
182722,1100,1100,1100,1100,-0.03,604,12.12,5.98,-1.30,-160.36,0.20,0.90,8.68,-0.1,-0.1,-1.1
182722,1100,1100,1100,1100,-0.04,603,12.12,5.98,-1.30,-160.42,0.18,0.88,8.66,0.4,-0.2,-1.1
182722,1100,1100,1100,1100,-0.02,605,12.09,6.00,-1.30,-160.47,0.19,0.79,8.64,0.5,-0.4,-1.1
182722,1186,1186,1186,1186,0.00,607,12.05,6.04,-1.32,-160.52,0.19,0.91,8.69,0.9,-0.8,-1.0
182722,1186,1186,1186,1186,0.03,610,12.01,6.09,-1.36,-160.57,0.18,0.94,8.69,1.2,-1.2,-0.9
182722,1186,1186,1186,1186,0.04,611,11.99,6.19,-1.42,-160.62,-0.33,1.15,9.01,2.3,-1.5,-1.0
182722,1186,1186,1186,1186,0.01,608,12.01,6.48,-1.33,-160.68,-8.46,0.23,14.55,5.4,1.0,-0.9
182722,1186,1186,1186,1186,0.06,613,12.00,6.80,-0.43,-160.76,-11.15,-1.77,13.77,3.3,3.8,-1.6
182722,1186,1186,1186,1186,0.03,610,12.00,6.93,-0.19,-160.91,6.97,3.63,5.29,-2.7,2.0,-4.5
182722,1186,1186,1186,1186,0.08,616,12.00,7.04,-0.22,-161.17,4.01,2.09,-1.18,-6.4,-12.4,-5.8
182722,1186,1186,1186,1186,0.08,616,11.98,6.94,-0.01,-161.61,16.90,-1.12,4.55,-5.7,-0.9,-10.8
182722,1186,1186,1186,1186,0.08,616,12.00,6.58,-1.24,-162.12,-0.75,-7.07,15.23,-4.5,-4.0,-5.8
182722,1186,1186,1186,1186,0.12,620,12.00,6.13,-1.31,-162.44,2.06,0.37,8.50,-7.7,-5.6,-6.2
182722,1186,1186,1186,1186,0.11,619,12.01,5.68,-1.36,-162.89,11.10,0.83,-2.07,-5.4,3.2,-10.6
182722,1186,1186,1186,1186,0.09,617,11.99,5.31,-1.73,-163.43,-7.41,3.79,10.96,-4.0,1.2,-11.2
182722,1186,1186,1186,1186,0.11,619,11.99,5.16,-1.99,-163.94,-1.97,-2.90,10.98,-2.7,-7.0,-11.3
182722,1186,1186,1186,1186,0.13,621,12.00,4.99,-2.18,-164.57,-13.79,1.29,12.81,-2.7,-12.3,-10.7
182722,1186,1186,1186,1186,0.10,618,12.01,4.79,-2.21,-165.17,4.25,-0.03,7.52,-1.2,-2.1,-11.4
182722,1186,1186,1186,1186,0.14,622,12.00,4.99,-2.25,-165.83,16.83,2.78,-1.65,-2.4,0.1,-15.6
182723,1186,1186,1186,1186,0.14,622,11.99,4.62,-2.77,-166.52,-10.69,4.58,12.59,-4.8,-9.4,-15.9
182723,1186,1186,1186,1186,0.13,621,12.00,4.45,-2.64,-167.31,7.33,-6.54,7.46,-4.3,7.7,-17.1
182723,1186,1186,1186,1186,0.15,623,11.99,3.96,-2.71,-168.13,8.80,6.77,0.16,-5.2,-0.1,-18.1
182723,1186,1186,1186,1186,0.16,624,12.00,3.80,-2.41,-169.07,3.80,2.34,11.10,-2.4,-16.5,-20.0
182723,1186,1186,1186,1186,0.18,626,11.99,3.81,-2.75,-170.13,-4.45,3.75,12.96,-1.6,-13.0,-20.6
182723,1186,1186,1186,1186,0.16,624,11.98,3.99,-2.32,-171.16,4.82,-1.41,5.45,-0.1,9.5,-22.0
182723,1186,1186,1186,1186,0.18,626,12.00,4.17,-2.11,-172.37,6.63,1.03,6.50,-0.3,3.5,-25.9
182723,1186,1186,1186,1186,0.20,628,12.00,4.43,-2.15,-173.61,-8.91,1.60,7.36,1.2,4.1,-25.0
182723,1186,1186,1186,1186,0.23,631,12.01,4.43,-2.19,-174.81,0.59,2.00,6.57,3.4,-6.2,-22.9
182723,1186,1186,1186,1186,0.22,630,11.98,4.81,-1.68,-176.06,4.52,7.05,0.96,4.6,9.0,-26.4
182723,1186,1186,1186,1186,0.21,629,12.00,4.95,-1.90,-177.40,3.27,-2.83,11.71,3.8,3.0,-25.9
182723,1186,1186,1186,1186,0.24,632,11.99,4.85,-1.68,-178.71,4.22,0.37,-4.23,5.6,6.6,-27.2
182723,1186,1186,1186,1186,0.24,632,11.99,5.07,-1.89,179.91,-3.88,2.06,12.06,5.0,-2.6,-28.7
182723,1186,1186,1186,1186,0.24,632,12.00,5.49,-1.26,178.39,-13.23,3.45,18.93,5.9,2.7,-30.0
182723,1186,1186,1186,1186,0.23,631,12.00,5.62,-1.34,176.98,12.70,-7.51,5.88,6.3,-3.2,-29.2
182723,1186,1186,1186,1186,0.24,632,11.98,5.75,-1.77,175.56,-1.93,-0.34,10.77,7.2,-11.3,-28.9
182723,1186,1186,1186,1186,0.24,632,11.98,6.06,-1.65,174.07,12.08,-3.87,10.37,4.1,5.7,-31.2
182723,1186,1186,1186,1186,0.25,633,11.98,6.42,-1.63,172.57,5.70,-3.89,3.29,6.0,5.7,-31.6
182723,1186,1186,1186,1186,0.27,636,12.00,6.26,-1.71,171.06,4.62,2.18,-1.17,5.3,-6.0,-30.5
182723,1186,1186,1186,1186,0.23,631,12.00,6.36,-2.09,169.57,-8.71,-0.26,15.77,4.2,-7.8,-30.4
182724,1186,1186,1186,1186,0.25,634,11.99,6.22,-2.27,168.02,7.37,2.37,2.79,2.1,4.0,-32.7
182724,1186,1186,1186,1186,0.25,633,11.98,6.33,-2.15,166.47,4.66,1.99,6.10,2.3,-7.2,-32.7
182724,1186,1186,1186,1186,0.27,636,11.99,6.04,-2.71,164.94,7.13,-0.89,6.72,3.2,2.7,-31.3
182724,1186,1186,1186,1186,0.25,634,12.00,6.44,-2.19,163.36,3.36,-0.24,5.51,3.7,1.8,-32.1
182724,1186,1186,1186,1186,0.25,634,11.99,6.89,-1.84,161.74,11.14,0.02,-0.24,2.7,14.4,-34.3
182724,1186,1186,1186,1186,0.27,636,12.00,6.97,-1.70,160.04,-2.15,3.74,9.59,1.5,1.2,-35.7
182724,1186,1186,1186,1186,0.27,636,11.99,7.38,-1.57,158.30,0.35,-0.86,11.79,1.6,-5.4,-36.3
182724,1186,1186,1186,1186,0.27,636,11.99,7.46,-1.56,156.47,-2.68,0.74,7.64,0.7,6.0,-39.2
182724,1186,1186,1186,1186,0.30,639,11.99,7.16,-1.73,154.60,3.74,-4.32,3.42,0.3,4.0,-38.9
182724,1186,1186,1186,1186,0.31,640,11.99,7.49,-1.17,152.70,3.35,-2.29,8.54,-0.6,2.3,-38.6
182724,1186,1186,1186,1186,0.35,644,12.00,7.38,-1.35,150.73,4.97,2.53,7.63,0.5,-5.4,-39.9
182724,1186,1186,1186,1186,0.25,633,11.97,7.00,-1.59,148.81,-1.80,-1.67,17.06,-3.8,-11.7,-38.9
182724,1186,1186,1186,1186,0.30,639,11.98,6.26,-1.39,146.84,12.13,1.29,7.27,-3.1,-2.9,-40.6
182724,1186,1186,1186,1186,0.29,638,11.99,6.04,-2.00,144.75,-6.49,2.12,15.93,-3.5,-9.3,-41.6
182724,1186,1186,1186,1186,0.34,643,11.99,6.19,-1.89,142.66,18.95,-7.30,9.36,-2.5,-2.8,-41.5
182724,1186,1186,1186,1186,0.32,641,11.98,5.51,-2.52,140.60,-15.18,1.94,19.60,-3.1,-19.1,-41.3
182724,1186,1186,1186,1186,0.32,641,12.00,4.92,-3.08,138.54,-17.54,4.69,15.31,-3.9,-10.6,-42.0
182724,1186,1186,1186,1186,0.32,641,11.99,5.33,-2.97,136.42,8.36,2.43,8.66,-1.7,8.4,-43.6
182724,1186,1186,1186,1186,0.31,640,11.98,5.23,-2.91,134.33,3.09,-0.05,13.58,-3.9,3.3,-42.1
182724,1186,1186,1186,1186,0.32,641,11.99,5.22,-2.39,132.29,2.04,-5.56,11.92,-2.7,-2.9,-41.1
182725,1186,1186,1186,1186,0.34,643,11.99,4.92,-2.47,130.27,-3.95,2.62,13.42,-1.6,5.6,-41.3
182725,1186,1186,1186,1186,0.35,644,11.99,5.21,-2.57,128.24,-10.55,1.89,19.60,-1.2,0.1,-42.4
182725,1186,1186,1186,1186,0.33,642,11.99,5.22,-1.96,126.16,4.59,2.55,4.44,-0.5,9.5,-42.1
182725,1186,1186,1186,1186,0.33,642,11.99,5.29,-1.56,124.15,-2.09,-0.67,17.33,-0.7,10.6,-40.5
182725,1186,1186,1186,1186,0.32,641,11.97,5.24,-1.23,122.22,9.48,1.24,11.30,-1.2,11.5,-40.0
182725,1186,1186,1186,1186,0.34,643,11.98,5.59,-0.86,120.30,-3.12,-1.03,5.09,0.2,7.5,-41.0
182725,1186,1186,1186,1186,0.37,646,11.98,5.22,-0.70,118.35,-2.52,-1.17,9.72,2.0,-2.9,-39.0
182725,1186,1186,1186,1186,0.36,645,11.98,5.04,-0.32,116.45,-4.26,-1.76,13.54,1.0,8.2,-40.2
182725,1186,1186,1186,1186,0.36,645,11.99,5.06,0.83,114.55,2.73,0.95,2.59,-0.1,18.5,-40.0
182725,1186,1186,1186,1186,0.36,645,11.99,5.04,1.42,112.62,5.67,-3.07,6.26,0.9,9.1,-41.3
182725,1186,1186,1186,1186,0.39,648,11.97,4.42,1.22,110.57,-11.63,0.68,10.63,1.3,-1.8,-41.2
182725,1186,1186,1186,1186,0.38,647,11.97,4.53,1.44,108.54,-6.78,-0.52,16.99,-0.5,2.0,-41.1
182725,1186,1186,1186,1186,0.37,646,11.98,4.28,1.87,106.58,5.33,3.01,9.21,-0.4,5.8,-40.3
182725,1186,1186,1186,1186,0.38,647,11.98,4.21,2.41,104.57,0.00,2.44,-2.50,-0.5,-9.6,-41.1
182725,1186,1186,1186,1186,0.35,644,11.99,4.25,2.85,102.56,-1.50,-2.35,10.86,-0.1,-5.7,-41.7
182725,1186,1186,1186,1186,0.39,648,11.98,4.10,2.74,100.55,-15.85,-3.29,18.88,2.0,-5.2,-42.2
182725,1186,1186,1186,1186,0.41,650,11.99,3.77,3.05,98.50,4.63,-2.98,13.86,5.0,1.8,-41.0
182725,1186,1186,1186,1186,0.39,648,11.98,3.67,3.25,96.46,7.30,4.43,13.95,4.3,4.7,-42.4
182725,1186,1186,1186,1186,0.43,653,11.98,3.77,3.17,94.44,2.23,-2.78,8.76,3.4,3.1,-40.1
182725,1186,1186,1186,1186,0.42,651,11.98,3.73,3.21,92.52,10.70,1.00,4.26,3.4,4.0,-39.8
182726,1186,1186,1186,1186,0.38,647,11.98,3.69,2.94,90.53,-5.34,-1.95,4.05,3.9,0.5,-39.8
182726,1186,1186,1186,1186,0.40,649,12.00,3.77,3.24,88.61,13.38,-2.33,4.46,4.5,11.5,-38.4
182726,1186,1186,1186,1186,0.43,653,11.99,3.22,2.84,86.77,3.01,0.97,10.40,1.0,-2.4,-35.6
182726,1186,1186,1186,1186,0.41,650,11.98,3.23,2.60,84.95,1.84,5.45,12.27,-1.1,-14.2,-36.4
182726,1186,1186,1186,1186,0.44,654,11.98,3.32,2.89,83.16,12.20,2.44,-0.02,-0.7,4.9,-36.1
182726,1186,1186,1186,1186,0.41,650,11.98,3.41,2.82,81.39,-10.25,2.45,14.12,-1.6,0.1,-36.0
182726,1186,1186,1186,1186,0.42,651,12.00,3.32,2.64,79.62,-0.33,4.85,12.27,1.0,4.5,-36.1
182726,1186,1186,1186,1186,0.42,652,11.98,3.26,2.86,77.88,-0.30,-4.46,9.70,1.3,1.5,-36.3
182726,1186,1186,1186,1186,0.43,653,11.99,3.51,2.80,76.21,-7.41,-2.47,15.64,0.7,-13.1,-33.4
182726,1186,1186,1186,1186,0.44,654,11.99,3.45,3.38,74.53,-12.93,4.79,14.04,1.3,-4.3,-33.9
182726,1186,1186,1186,1186,0.45,655,11.97,3.50,3.10,72.94,-13.68,1.80,17.12,1.9,-2.2,-32.1
182726,1186,1186,1186,1186,0.44,654,11.97,3.38,2.87,71.34,9.97,3.27,4.18,2.5,0.8,-31.9
182726,1186,1186,1186,1186,0.45,655,11.99,3.28,2.55,69.78,5.93,0.95,-1.58,1.2,12.9,-31.3
182726,1186,1186,1186,1186,0.46,656,11.98,3.20,2.47,68.26,-11.14,1.71,17.19,1.3,1.2,-32.0
182726,1186,1186,1186,1186,0.49,659,11.98,2.93,2.40,66.76,6.17,0.98,5.78,2.1,6.2,-30.6
182726,1186,1186,1186,1186,0.46,656,11.97,2.91,2.64,65.35,0.83,-2.92,8.07,1.2,4.9,-29.8
182726,1186,1186,1186,1186,0.46,656,11.97,2.45,2.31,63.90,-0.75,1.30,5.90,0.6,2.9,-29.5
182726,1186,1186,1186,1186,0.43,653,11.99,2.62,2.48,62.55,-3.09,-4.67,11.49,1.7,4.5,-27.5
182726,1186,1186,1186,1186,0.45,655,11.98,2.87,2.67,61.23,-11.99,2.26,15.42,1.4,-4.3,-26.8
182726,1186,1186,1186,1186,0.47,657,11.98,2.94,2.68,59.87,-4.08,-1.34,7.02,1.5,0.1,-27.4
182727,1186,1186,1186,1186,0.48,658,11.99,2.55,2.55,58.52,-2.08,6.53,1.88,0.5,6.8,-26.4
182727,1186,1186,1186,1186,0.47,657,11.98,2.69,2.88,57.26,-2.14,-1.71,15.50,2.7,4.0,-25.6
182727,1186,1186,1186,1186,0.45,655,11.99,2.69,3.75,55.95,9.39,1.30,-1.74,1.5,17.9,-25.9
182727,1186,1186,1186,1186,0.48,658,11.98,3.02,3.69,54.65,-9.50,-1.87,18.82,0.5,-6.9,-28.4
182727,1186,1186,1186,1186,0.46,656,11.98,2.41,3.26,53.19,-0.53,-1.95,9.73,-0.3,3.2,-28.2
182727,1186,1186,1186,1186,0.47,657,11.98,2.15,2.77,51.78,2.06,-0.55,10.23,1.9,1.5,-29.0
182727,1186,1186,1186,1186,0.46,656,11.98,2.43,2.84,50.43,-7.90,2.10,12.62,1.5,-10.6,-26.6
182727,1186,1186,1186,1186,0.48,658,11.98,2.75,2.41,49.08,1.49,-0.14,11.76,4.2,-0.4,-28.0
182727,1186,1186,1186,1186,0.52,662,11.97,2.96,2.48,47.74,3.95,-3.07,8.74,2.4,5.0,-26.8
182727,1186,1186,1186,1186,0.50,660,11.98,2.66,1.99,46.43,0.72,3.51,5.97,1.6,-2.0,-25.6
182727,1186,1186,1186,1186,0.47,657,11.97,2.35,1.63,45.15,-5.54,-0.63,9.35,2.9,-4.9,-25.7
182727,1186,1186,1186,1186,0.49,659,11.98,2.54,1.48,43.93,-8.14,1.21,11.76,3.1,-1.1,-23.3
182727,1186,1186,1186,1186,0.52,662,11.97,3.00,1.30,42.81,-11.03,-0.42,17.76,1.5,-3.7,-23.0
182727,1186,1186,1186,1186,0.50,660,11.98,2.86,1.40,41.69,3.85,-5.46,7.47,0.4,6.0,-23.7
182727,1186,1186,1186,1186,0.55,665,11.98,2.53,0.91,40.56,-1.16,0.76,5.43,1.4,0.7,-22.7
182727,1186,1186,1186,1186,0.51,661,11.98,2.63,0.88,39.55,-13.05,3.84,19.60,1.2,-3.1,-20.9
182727,1186,1186,1186,1186,0.50,660,11.97,3.08,1.43,38.52,-0.40,2.49,8.67,2.3,10.5,-22.6
182727,1186,1186,1186,1186,0.50,660,11.98,3.54,2.05,37.47,11.45,-0.51,8.93,2.7,12.1,-22.6
182727,1186,1186,1186,1186,0.50,660,11.97,3.45,1.85,36.37,-3.65,3.98,4.26,3.7,1.0,-21.8
182727,1186,1186,1186,1186,0.50,660,11.96,3.57,1.77,35.30,0.80,0.28,4.00,5.2,3.4,-21.0
182728,1186,1186,1186,1186,0.52,662,11.98,3.92,1.87,34.24,2.69,0.09,14.81,2.9,-4.2,-20.5
182728,1186,1186,1186,1186,0.50,660,11.98,4.05,1.50,33.14,-12.06,5.05,7.98,2.4,-1.9,-21.6
182728,1186,1186,1186,1186,0.50,660,11.97,4.45,1.83,32.06,-3.28,-0.28,5.36,2.1,2.8,-22.0
182728,1186,1186,1186,1186,0.49,659,11.98,4.34,1.35,30.93,-6.53,-2.17,15.30,1.1,-10.1,-21.2
182728,1186,1186,1186,1186,0.52,662,11.97,4.21,1.53,29.80,7.58,-1.96,4.95,0.9,-4.5,-23.1
182728,1186,1186,1186,1186,0.50,660,11.97,4.45,1.64,28.71,-12.86,-1.57,18.19,-1.3,10.0,-21.9
182728,1186,1186,1186,1186,0.53,663,11.98,4.12,1.59,27.65,4.34,-2.35,12.69,-0.4,0.0,-21.8
182728,1186,1186,1186,1186,0.51,661,11.97,4.07,1.62,26.51,-4.11,0.37,10.77,-0.9,-5.1,-22.8
182728,1186,1186,1186,1186,0.51,661,11.97,4.06,2.41,25.35,18.34,-0.14,-0.24,2.4,4.3,-24.0
182728,1186,1186,1186,1186,0.51,661,11.97,4.11,2.04,24.14,0.06,-1.08,11.08,0.2,7.9,-24.8
182728,1186,1186,1186,1186,0.51,661,11.97,4.15,2.02,22.98,-8.43,6.06,5.50,1.5,5.6,-22.3
182728,1186,1186,1186,1186,0.52,662,11.98,3.76,2.17,21.89,5.53,0.27,-2.77,0.7,8.0,-21.4
182728,1186,1186,1186,1186,0.50,660,11.97,3.91,2.85,20.82,3.07,-0.15,-0.97,2.7,2.9,-23.1
182728,1186,1186,1186,1186,0.52,662,11.98,3.47,1.34,12.55,-6.20,-1.01,17.28,4.0,-6.9,-19.8
182728,1186,1186,1186,1186,0.53,663,11.99,3.87,2.02,11.47,-6.05,5.56,8.26,5.9,-3.4,-21.9
182728,1186,1186,1186,1186,0.54,664,11.97,4.26,1.82,10.44,-6.11,4.62,5.58,4.5,-1.2,-19.8
182728,1186,1186,1186,1186,0.52,662,11.97,4.30,1.85,9.37,8.80,-2.37,3.14,2.4,-3.4,-20.4
182728,1186,1186,1186,1186,0.50,660,11.97,4.42,1.84,8.30,0.02,-3.57,2.96,1.3,-3.8,-20.4
182728,1186,1186,1186,1186,0.54,664,11.98,4.15,1.45,7.27,-5.84,7.78,4.26,0.9,0.9,-19.3
182728,1186,1186,1186,1186,0.53,663,11.99,4.46,1.71,6.22,-5.27,-1.41,16.07,0.1,-5.4,-22.2
182729,1186,1186,1186,1186,0.52,662,11.99,4.27,1.83,5.05,3.78,2.02,5.33,-0.9,-0.7,-22.4
182729,1186,1186,1186,1186,0.58,668,11.98,3.77,1.06,3.87,-2.18,-4.30,7.63,-0.6,2.6,-23.4
182729,1186,1186,1186,1186,0.52,662,11.98,3.74,1.09,2.63,-8.76,4.81,9.34,-1.7,-5.6,-23.3
182729,1186,1186,1186,1186,0.56,666,11.96,3.52,1.32,1.47,11.73,-1.13,2.21,-0.5,13.0,-22.7
182729,1186,1186,1186,1186,0.53,663,11.98,3.45,1.16,0.26,-11.94,1.46,18.59,-1.1,-1.3,-24.6
182729,1186,1186,1186,1186,0.53,663,11.98,3.12,0.92,-1.01,13.41,1.00,8.59,-2.0,0.2,-24.3
182729,1186,1186,1186,1186,0.53,663,11.96,2.77,0.36,-2.32,-0.84,5.80,1.56,-0.8,-11.8,-25.2
182729,1186,1186,1186,1186,0.54,664,11.96,2.93,0.30,-3.60,-6.59,0.92,12.76,0.0,-8.9,-24.7
182729,1186,1186,1186,1186,0.57,667,11.98,2.95,0.51,-4.85,1.51,1.71,2.60,0.4,-8.4,-25.5
182729,1186,1186,1186,1186,0.54,664,11.98,2.66,-0.02,-6.20,-15.21,2.25,19.35,0.5,-8.9,-27.2
182729,1186,1186,1186,1186,0.56,666,11.98,2.33,-0.02,-7.55,-11.44,4.12,12.23,1.7,-6.3,-26.4
182729,1186,1186,1186,1186,0.57,667,11.97,2.23,0.51,-8.91,-1.18,6.85,10.60,-0.5,-3.7,-27.0
182729,1186,1186,1186,1186,0.56,666,11.97,2.58,0.58,-10.33,1.98,2.11,6.89,0.5,-0.7,-28.4
182729,1186,1186,1186,1186,0.52,662,11.97,2.46,0.88,-11.74,6.22,-0.41,11.41,-0.4,3.7,-28.1
182729,1186,1186,1186,1186,0.58,668,11.97,2.56,0.60,-13.05,6.79,1.92,5.05,-0.1,0.7,-26.6
182729,1186,1186,1186,1186,0.53,663,11.96,2.74,0.62,-14.32,6.60,0.56,5.45,3.5,-0.9,-24.5
182729,1186,1186,1186,1186,0.57,667,11.97,2.88,0.12,-15.51,-2.37,2.34,3.92,3.2,-7.6,-25.5
182729,1186,1186,1186,1186,0.54,664,11.99,2.86,-0.14,-16.65,-1.63,1.85,11.67,2.4,10.6,-22.0
182729,1186,1186,1186,1186,0.55,665,11.97,3.09,-0.23,-17.84,-2.33,-0.11,19.60,-0.4,-15.1,-22.6
182729,1186,1186,1186,1186,0.53,663,11.98,3.04,-0.05,-19.13,7.51,-2.04,-2.96,-0.7,12.6,-25.9
182730,1186,1186,1186,1186,0.55,665,11.98,2.91,-0.12,-20.39,0.45,-2.61,12.10,-3.2,-1.0,-23.8
182730,1186,1186,1186,1186,0.56,666,11.96,2.58,-0.08,-21.61,5.53,-1.37,5.53,-1.0,9.9,-24.8
182730,1186,1186,1186,1186,0.55,665,11.98,2.36,0.28,-22.87,6.24,-0.10,15.85,-3.7,3.8,-23.1
182730,1186,1186,1186,1186,0.57,667,11.97,2.21,0.10,-24.06,-10.31,-5.42,10.52,-0.5,3.6,-24.0
182730,1186,1186,1186,1186,0.55,665,11.98,2.16,0.17,-25.28,4.47,-1.23,2.92,-0.4,9.2,-23.4
182730,1186,1186,1186,1186,0.56,666,11.98,2.50,0.24,-26.48,1.92,1.71,7.91,0.2,-1.0,-23.3
182730,1186,1186,1186,1186,0.56,666,11.98,2.34,0.31,-27.65,2.77,-1.16,11.44,2.2,7.8,-23.3
182730,1186,1186,1186,1186,0.54,664,11.98,2.34,0.47,-28.84,0.51,-6.34,11.50,1.8,2.5,-22.9
182730,1186,1186,1186,1186,0.57,667,11.97,2.20,0.54,-30.02,-4.80,1.90,11.57,2.0,4.2,-23.6
182730,1186,1186,1186,1186,0.56,666,11.98,2.86,0.86,-31.13,8.87,2.11,7.48,3.7,7.4,-20.8
182730,1186,1186,1186,1186,0.53,663,11.97,3.10,0.61,-32.13,5.34,0.36,8.03,4.4,15.0,-19.5
182730,1186,1186,1186,1186,0.56,666,11.97,3.27,0.92,-33.11,11.45,-2.26,7.95,5.4,17.5,-19.2
182730,1186,1186,1186,1186,0.55,665,11.96,3.17,0.58,-34.04,-8.01,5.23,13.23,6.2,-7.0,-18.2
182730,1186,1186,1186,1186,0.56,666,11.98,3.35,0.73,-34.98,-5.73,-1.09,11.20,6.6,0.6,-18.6
182730,1186,1186,1186,1186,0.57,667,11.98,3.97,0.94,-35.97,-3.69,-1.62,10.21,8.6,-0.1,-20.3
182730,1186,1186,1186,1186,0.56,666,11.98,4.54,1.04,-37.02,5.30,-2.15,7.90,6.9,2.3,-20.6
182730,1186,1186,1186,1186,0.55,665,11.98,4.49,0.08,-38.15,-3.30,-4.94,10.86,5.1,-5.0,-21.5
182730,1186,1186,1186,1186,0.56,666,11.98,4.42,-0.32,-39.20,-5.27,0.95,5.81,3.6,-2.3,-21.9
182730,1186,1186,1186,1186,0.56,666,11.97,4.73,0.30,-40.28,11.39,4.75,8.55,3.8,1.3,-20.0
182730,1186,1186,1186,1186,0.53,663,11.97,5.02,0.26,-41.33,8.99,1.20,4.48,3.1,2.3,-19.4
182731,1186,1186,1186,1186,0.54,664,11.97,4.99,0.24,-42.36,2.23,1.73,13.52,1.3,4.6,-21.8
182731,1186,1186,1186,1186,0.55,665,11.99,5.21,0.42,-43.47,-4.02,8.83,14.47,2.6,1.2,-21.5
182731,1186,1186,1186,1186,0.57,667,11.96,5.54,0.37,-44.54,8.70,-4.16,10.57,1.2,3.2,-22.0
182731,1186,1186,1186,1186,0.57,667,11.98,5.43,0.48,-45.69,7.66,-2.14,4.00,0.4,2.4,-23.2
182731,1186,1186,1186,1186,0.56,666,11.98,5.46,0.75,-46.89,-2.98,0.85,10.12,-1.0,5.2,-23.9
182731,1186,1186,1186,1186,0.58,668,11.97,5.45,0.95,-48.16,-3.42,-0.12,15.59,-0.2,6.0,-25.3
182731,1186,1186,1186,1186,0.58,669,11.97,5.08,1.27,-49.48,5.66,-7.12,6.89,0.1,6.9,-25.4
182731,1186,1186,1186,1186,0.54,664,11.99,4.75,0.60,-50.78,-2.33,-0.35,1.72,-2.8,-11.1,-26.9
182731,1186,1186,1186,1186,0.56,666,11.97,4.43,0.11,-52.16,4.23,-6.35,10.75,-2.2,-6.0,-28.6
182731,1186,1186,1186,1186,0.58,668,11.98,4.33,0.03,-53.59,1.65,-0.06,8.08,-3.0,-4.7,-28.7
182731,1186,1186,1186,1186,0.57,667,11.97,4.07,-0.30,-55.11,13.16,-3.74,-0.14,-4.2,3.2,-31.1
182731,1186,1186,1186,1186,0.55,665,11.98,3.55,-0.80,-56.59,3.10,-3.74,3.78,-5.9,7.3,-30.2
182731,1186,1186,1186,1186,0.57,667,11.97,2.94,-0.93,-58.05,3.95,-0.56,7.74,-1.9,-11.1,-28.6
182731,1186,1186,1186,1186,0.56,666,11.96,2.86,-1.41,-59.52,-5.79,-2.64,10.46,-1.8,-3.7,-28.5
182731,1186,1186,1186,1186,0.57,667,11.97,2.85,-1.39,-61.04,1.78,3.12,7.68,-1.5,-8.2,-30.7
182731,1186,1186,1186,1186,0.57,667,11.98,3.02,-0.95,-62.61,7.64,-1.37,5.01,-1.8,-2.1,-30.2
182731,1186,1186,1186,1186,0.57,667,11.98,2.84,-1.10,-64.12,-5.74,1.69,11.42,-1.1,2.4,-30.3
